<?xml version="1.0"?>
<opencv_storage>
<cascade>
  <stageType>BOOST</stageType>
  <featureType>HAAR</featureType>
  <height>24</height>
  <width>24</width>
  <stageParams>
    <boostType>GAB</boostType>
    <minHitRate>9.9500000476837158e-01</minHitRate>
    <maxFalseAlarm>5.0000000000000000e-01</maxFalseAlarm>
    <weightTrimRate>9.4999998807907104e-01</weightTrimRate>
    <maxDepth>1</maxDepth>
    <maxWeakCount>100</maxWeakCount></stageParams>
  <featureParams>
    <maxCatCount>0</maxCatCount>
    <featSize>1</featSize>
    <mode>BASIC</mode></featureParams>
  <stageNum>13</stageNum>
  <stages>
    <!-- stage 0 -->
    <_>
      <maxWeakCount>3</maxWeakCount>
      <stageThreshold>-1.2980275154113770e+00</stageThreshold>
      <weakClassifiers>
        <_>
          <internalNodes>
            0 -1 45 2.6020629331469536e-02</internalNodes>
          <leafValues>
            -9.8966944217681885e-01 6.1458331346511841e-01</leafValues></_>
        <_>
          <internalNodes>
            0 -1 22 -4.2609132826328278e-02</internalNodes>
          <leafValues>
            7.1921336650848389e-01 -9.4892454147338867e-01</leafValues></_>
        <_>
          <internalNodes>
            0 -1 6 -4.4871360063552856e-02</internalNodes>
          <leafValues>
            6.6756403446197510e-01 -9.6368634700775146e-01</leafValues></_></weakClassifiers></_>
    <!-- stage 1 -->
    <_>
      <maxWeakCount>3</maxWeakCount>
      <stageThreshold>-1.3747179508209229e+00</stageThreshold>
      <weakClassifiers>
        <_>
          <internalNodes>
            0 -1 24 3.2468024641275406e-02</internalNodes>
          <leafValues>
            -9.1560351848602295e-01 6.5957444906234741e-01</leafValues></_>
        <_>
          <internalNodes>
            0 -1 42 6.0815416276454926e-02</internalNodes>
          <leafValues>
            -9.7085326910018921e-01 4.7101110219955444e-01</leafValues></_>
        <_>
          <internalNodes>
            0 -1 14 -3.4080499410629272e-01</internalNodes>
          <leafValues>
            5.9682339429855347e-01 -9.3012559413909912e-01</leafValues></_></weakClassifiers></_>
    <!-- stage 2 -->
    <_>
      <maxWeakCount>3</maxWeakCount>
      <stageThreshold>-1.4061309099197388e+00</stageThreshold>
      <weakClassifiers>
        <_>
          <internalNodes>
            0 -1 8 -2.3573726415634155e-02</internalNodes>
          <leafValues>
            5.9493672847747803e-01 -9.3213570117950439e-01</leafValues></_>
        <_>
          <internalNodes>
            0 -1 30 3.0252724885940552e-02</internalNodes>
          <leafValues>
            -9.2781955003738403e-01 3.1804037094116211e-01</leafValues></_>
        <_>
          <internalNodes>
            0 -1 26 -1.8024181947112083e-02</internalNodes>
          <leafValues>
            6.5492516756057739e-01 -7.9203557968139648e-01</leafValues></_></weakClassifiers></_>
    <!-- stage 3 -->
    <_>
      <maxWeakCount>4</maxWeakCount>
      <stageThreshold>-2.0768496990203857e+00</stageThreshold>
      <weakClassifiers>
        <_>
          <internalNodes>
            0 -1 49 5.7159839197993279e-03</internalNodes>
          <leafValues>
            -9.3877553939819336e-01 4.4444444775581360e-01</leafValues></_>
        <_>
          <internalNodes>
            0 -1 0 -1.2151308357715607e-01</internalNodes>
          <leafValues>
            4.0687671303749084e-01 -9.1493177413940430e-01</leafValues></_>
        <_>
          <internalNodes>
            0 -1 10 -9.3186357989907265e-03</internalNodes>
          <leafValues>
            7.1090131998062134e-01 -7.3098701238632202e-01</leafValues></_>
        <_>
          <internalNodes>
            0 -1 5 -1.8540546298027039e-02</internalNodes>
          <leafValues>
            5.0784456729888916e-01 -9.3343740701675415e-01</leafValues></_></weakClassifiers></_>
    <!-- stage 4 -->
    <_>
      <maxWeakCount>4</maxWeakCount>
      <stageThreshold>-1.9784973859786987e+00</stageThreshold>
      <weakClassifiers>
        <_>
          <internalNodes>
            0 -1 49 5.5808797478675842e-03</internalNodes>
          <leafValues>
            -9.3899780511856079e-01 9.0909093618392944e-02</leafValues></_>
        <_>
          <internalNodes>
            0 -1 44 2.8391174972057343e-02</internalNodes>
          <leafValues>
            -8.9530628919601440e-01 2.7246099710464478e-01</leafValues></_>
        <_>
          <internalNodes>
            0 -1 35 1.7773408442735672e-02</internalNodes>
          <leafValues>
            -6.3617104291915894e-01 6.7266631126403809e-01</leafValues></_>
        <_>
          <internalNodes>
            0 -1 4 -1.2072275578975677e-01</internalNodes>
          <leafValues>
            4.9197778105735779e-01 -8.5006594657897949e-01</leafValues></_></weakClassifiers></_>
    <!-- stage 5 -->
    <_>
      <maxWeakCount>3</maxWeakCount>
      <stageThreshold>-1.5328269004821777e+00</stageThreshold>
      <weakClassifiers>
        <_>
          <internalNodes>
            0 -1 16 2.8562605381011963e-02</internalNodes>
          <leafValues>
            -8.9858013391494751e-01 2.6436781883239746e-01</leafValues></_>
        <_>
          <internalNodes>
            0 -1 41 -1.9642587751150131e-02</internalNodes>
          <leafValues>
            2.7448377013206482e-01 -9.4326770305633545e-01</leafValues></_>
        <_>
          <internalNodes>
            0 -1 18 -6.8884164094924927e-02</internalNodes>
          <leafValues>
            4.2070206999778748e-01 -9.0873050689697266e-01</leafValues></_></weakClassifiers></_>
    <!-- stage 6 -->
    <_>
      <maxWeakCount>5</maxWeakCount>
      <stageThreshold>-1.8355499505996704e+00</stageThreshold>
      <weakClassifiers>
        <_>
          <internalNodes>
            0 -1 13 8.0269044265151024e-03</internalNodes>
          <leafValues>
            -8.9717739820480347e-01 2.9761904478073120e-01</leafValues></_>
        <_>
          <internalNodes>
            0 -1 43 8.1648621708154678e-03</internalNodes>
          <leafValues>
            -9.2574965953826904e-01 1.6924756765365601e-01</leafValues></_>
        <_>
          <internalNodes>
            0 -1 51 -3.6278595216572285e-03</internalNodes>
          <leafValues>
            4.9164596199989319e-01 -6.8596255779266357e-01</leafValues></_>
        <_>
          <internalNodes>
            0 -1 19 -3.7215568125247955e-02</internalNodes>
          <leafValues>
            4.7585004568099976e-01 -7.6646053791046143e-01</leafValues></_>
        <_>
          <internalNodes>
            0 -1 20 1.3836089521646500e-02</internalNodes>
          <leafValues>
            -9.7606360912322998e-01 3.4480300545692444e-01</leafValues></_></weakClassifiers></_>
    <!-- stage 7 -->
    <_>
      <maxWeakCount>6</maxWeakCount>
      <stageThreshold>-1.7199895381927490e+00</stageThreshold>
      <weakClassifiers>
        <_>
          <internalNodes>
            0 -1 37 -3.9774175733327866e-02</internalNodes>
          <leafValues>
            5.5555558204650879e-01 -8.4354382753372192e-01</leafValues></_>
        <_>
          <internalNodes>
            0 -1 3 -2.3223904892802238e-02</internalNodes>
          <leafValues>
            6.0562270879745483e-01 -6.7690199613571167e-01</leafValues></_>
        <_>
          <internalNodes>
            0 -1 31 1.4036757871508598e-02</internalNodes>
          <leafValues>
            -6.8849623203277588e-01 5.4173648357391357e-01</leafValues></_>
        <_>
          <internalNodes>
            0 -1 17 -1.0181228071451187e-01</internalNodes>
          <leafValues>
            3.3610665798187256e-01 -8.8152337074279785e-01</leafValues></_>
        <_>
          <internalNodes>
            0 -1 1 2.5202329270541668e-03</internalNodes>
          <leafValues>
            -5.6532460451126099e-01 5.7738924026489258e-01</leafValues></_>
        <_>
          <internalNodes>
            0 -1 15 -9.5127159729599953e-03</internalNodes>
          <leafValues>
            7.1817046403884888e-01 -4.6993008255958557e-01</leafValues></_></weakClassifiers></_>
    <!-- stage 8 -->
    <_>
      <maxWeakCount>5</maxWeakCount>
      <stageThreshold>-1.9233188629150391e+00</stageThreshold>
      <weakClassifiers>
        <_>
          <internalNodes>
            0 -1 46 2.4986477568745613e-02</internalNodes>
          <leafValues>
            -8.4494602680206299e-01 1.4893616735935211e-01</leafValues></_>
        <_>
          <internalNodes>
            0 -1 27 -1.3576334342360497e-02</internalNodes>
          <leafValues>
            3.0264911055564880e-01 -7.3547494411468506e-01</leafValues></_>
        <_>
          <internalNodes>
            0 -1 32 -2.3240316659212112e-02</internalNodes>
          <leafValues>
            3.0522972345352173e-01 -8.6948949098587036e-01</leafValues></_>
        <_>
          <internalNodes>
            0 -1 7 -1.0271690785884857e-02</internalNodes>
          <leafValues>
            2.4246616661548615e-01 -1.</leafValues></_>
        <_>
          <internalNodes>
            0 -1 29 5.3923920495435596e-04</internalNodes>
          <leafValues>
            2.8412547707557678e-01 -9.6929436922073364e-01</leafValues></_></weakClassifiers></_>
    <!-- stage 9 -->
    <_>
      <maxWeakCount>4</maxWeakCount>
      <stageThreshold>-1.0339163541793823e+00</stageThreshold>
      <weakClassifiers>
        <_>
          <internalNodes>
            0 -1 21 1.6762480139732361e-02</internalNodes>
          <leafValues>
            -8.2242989540100098e-01 4.4444444775581360e-01</leafValues></_>
        <_>
          <internalNodes>
            0 -1 23 -9.0944406110793352e-04</internalNodes>
          <leafValues>
            -9.6569669246673584e-01 1.0182423889636993e-01</leafValues></_>
        <_>
          <internalNodes>
            0 -1 36 4.3122645467519760e-02</internalNodes>
          <leafValues>
            -8.5329806804656982e-01 2.4916036427021027e-01</leafValues></_>
        <_>
          <internalNodes>
            0 -1 9 -1.1754666455090046e-02</internalNodes>
          <leafValues>
            5.8788746595382690e-01 -5.6247097253799438e-01</leafValues></_></weakClassifiers></_>
    <!-- stage 10 -->
    <_>
      <maxWeakCount>5</maxWeakCount>
      <stageThreshold>-1.5431044101715088e+00</stageThreshold>
      <weakClassifiers>
        <_>
          <internalNodes>
            0 -1 12 -4.2428195476531982e-02</internalNodes>
          <leafValues>
            4.2342340946197510e-01 -8.4556722640991211e-01</leafValues></_>
        <_>
          <internalNodes>
            0 -1 50 5.1490142941474915e-03</internalNodes>
          <leafValues>
            -7.4206006526947021e-01 3.4140679240226746e-01</leafValues></_>
        <_>
          <internalNodes>
            0 -1 33 -3.0811858596280217e-04</internalNodes>
          <leafValues>
            -9.3625730276107788e-01 2.8372019529342651e-01</leafValues></_>
        <_>
          <internalNodes>
            0 -1 25 -1.5616617165505886e-02</internalNodes>
          <leafValues>
            5.2532178163528442e-01 -5.7434439659118652e-01</leafValues></_>
        <_>
          <internalNodes>
            0 -1 28 8.6812535300850868e-05</internalNodes>
          <leafValues>
            3.3514711260795593e-01 -9.9507284164428711e-01</leafValues></_></weakClassifiers></_>
    <!-- stage 11 -->
    <_>
      <maxWeakCount>3</maxWeakCount>
      <stageThreshold>-1.1430535316467285e+00</stageThreshold>
      <weakClassifiers>
        <_>
          <internalNodes>
            0 -1 48 -1.8455553799867630e-02</internalNodes>
          <leafValues>
            8.9830505847930908e-01 -8.1108081340789795e-01</leafValues></_>
        <_>
          <internalNodes>
            0 -1 40 1.8112499266862869e-02</internalNodes>
          <leafValues>
            -6.5107655525207520e-01 5.2884739637374878e-01</leafValues></_>
        <_>
          <internalNodes>
            0 -1 39 2.1607673261314631e-04</internalNodes>
          <leafValues>
            3.1910389661788940e-01 -9.7531676292419434e-01</leafValues></_></weakClassifiers></_>
    <!-- stage 12 -->
    <_>
      <maxWeakCount>5</maxWeakCount>
      <stageThreshold>-1.7809617519378662e+00</stageThreshold>
      <weakClassifiers>
        <_>
          <internalNodes>
            0 -1 11 7.7367867343127728e-03</internalNodes>
          <leafValues>
            -8.2888686656951904e-01 8.3561640977859497e-01</leafValues></_>
        <_>
          <internalNodes>
            0 -1 2 1.5700411051511765e-02</internalNodes>
          <leafValues>
            -7.7165007591247559e-01 4.8267009854316711e-01</leafValues></_>
        <_>
          <internalNodes>
            0 -1 38 -1.3620802201330662e-04</internalNodes>
          <leafValues>
            -9.8057895898818970e-01 3.3165264129638672e-01</leafValues></_>
        <_>
          <internalNodes>
            0 -1 34 -8.1204110756516457e-04</internalNodes>
          <leafValues>
            -8.8719987869262695e-01 3.0231225490570068e-01</leafValues></_>
        <_>
          <internalNodes>
            0 -1 47 -7.1420668973587453e-05</internalNodes>
          <leafValues>
            3.7512242794036865e-01 -9.2286616563796997e-01</leafValues></_></weakClassifiers></_></stages>
  <features>
    <_>
      <rects>
        <_>
          0 5 24 5 -1.</_>
        <_>
          8 5 8 5 3.</_></rects>
      <tilted>0</tilted></_>
    <_>
      <rects>
        <_>
          0 6 2 10 -1.</_>
        <_>
          1 6 1 10 2.</_></rects>
      <tilted>0</tilted></_>
    <_>
      <rects>
        <_>
          0 17 8 6 -1.</_>
        <_>
          0 17 4 3 2.</_>
        <_>
          4 20 4 3 2.</_></rects>
      <tilted>0</tilted></_>
    <_>
      <rects>
        <_>
          1 0 4 12 -1.</_>
        <_>
          1 0 2 6 2.</_>
        <_>
          3 6 2 6 2.</_></rects>
      <tilted>0</tilted></_>
    <_>
      <rects>
        <_>
          1 5 12 12 -1.</_>
        <_>
          7 5 6 12 2.</_></rects>
      <tilted>0</tilted></_>
    <_>
      <rects>
        <_>
          1 8 12 4 -1.</_>
        <_>
          5 8 4 4 3.</_></rects>
      <tilted>0</tilted></_>
    <_>
      <rects>
        <_>
          1 10 8 7 -1.</_>
        <_>
          5 10 4 7 2.</_></rects>
      <tilted>0</tilted></_>
    <_>
      <rects>
        <_>
          1 12 15 2 -1.</_>
        <_>
          6 12 5 2 3.</_></rects>
      <tilted>0</tilted></_>
    <_>
      <rects>
        <_>
          2 9 4 6 -1.</_>
        <_>
          4 9 2 6 2.</_></rects>
      <tilted>0</tilted></_>
    <_>
      <rects>
        <_>
          2 11 6 3 -1.</_>
        <_>
          4 11 2 3 3.</_></rects>
      <tilted>0</tilted></_>
    <_>
      <rects>
        <_>
          2 22 20 2 -1.</_>
        <_>
          2 23 20 1 2.</_></rects>
      <tilted>0</tilted></_>
    <_>
      <rects>
        <_>
          4 11 1 9 -1.</_>
        <_>
          4 14 1 3 3.</_></rects>
      <tilted>0</tilted></_>
    <_>
      <rects>
        <_>
          5 5 15 2 -1.</_>
        <_>
          10 5 5 2 3.</_></rects>
      <tilted>0</tilted></_>
    <_>
      <rects>
        <_>
          6 0 14 2 -1.</_>
        <_>
          6 1 14 1 2.</_></rects>
      <tilted>0</tilted></_>
    <_>
      <rects>
        <_>
          6 0 15 24 -1.</_>
        <_>
          6 8 15 8 3.</_></rects>
      <tilted>0</tilted></_>
    <_>
      <rects>
        <_>
          6 22 11 2 -1.</_>
        <_>
          6 23 11 1 2.</_></rects>
      <tilted>0</tilted></_>
    <_>
      <rects>
        <_>
          7 0 7 6 -1.</_>
        <_>
          7 2 7 2 3.</_></rects>
      <tilted>0</tilted></_>
    <_>
      <rects>
        <_>
          7 1 14 14 -1.</_>
        <_>
          7 8 14 7 2.</_></rects>
      <tilted>0</tilted></_>
    <_>
      <rects>
        <_>
          8 1 10 8 -1.</_>
        <_>
          8 5 10 4 2.</_></rects>
      <tilted>0</tilted></_>
    <_>
      <rects>
        <_>
          8 2 9 9 -1.</_>
        <_>
          8 5 9 3 3.</_></rects>
      <tilted>0</tilted></_>
    <_>
      <rects>
        <_>
          8 7 16 2 -1.</_>
        <_>
          16 7 8 2 2.</_></rects>
      <tilted>0</tilted></_>
    <_>
      <rects>
        <_>
          8 19 3 4 -1.</_>
        <_>
          8 21 3 2 2.</_></rects>
      <tilted>0</tilted></_>
    <_>
      <rects>
        <_>
          9 1 7 6 -1.</_>
        <_>
          9 4 7 3 2.</_></rects>
      <tilted>0</tilted></_>
    <_>
      <rects>
        <_>
          9 9 9 1 -1.</_>
        <_>
          12 9 3 1 3.</_></rects>
      <tilted>0</tilted></_>
    <_>
      <rects>
        <_>
          9 17 5 6 -1.</_>
        <_>
          9 20 5 3 2.</_></rects>
      <tilted>0</tilted></_>
    <_>
      <rects>
        <_>
          10 2 3 4 -1.</_>
        <_>
          10 4 3 2 2.</_></rects>
      <tilted>0</tilted></_>
    <_>
      <rects>
        <_>
          10 2 4 4 -1.</_>
        <_>
          10 4 4 2 2.</_></rects>
      <tilted>0</tilted></_>
    <_>
      <rects>
        <_>
          10 2 5 6 -1.</_>
        <_>
          10 4 5 2 3.</_></rects>
      <tilted>0</tilted></_>
    <_>
      <rects>
        <_>
          10 8 2 1 -1.</_>
        <_>
          11 8 1 1 2.</_></rects>
      <tilted>0</tilted></_>
    <_>
      <rects>
        <_>
          10 9 4 2 -1.</_>
        <_>
          12 9 2 2 2.</_></rects>
      <tilted>0</tilted></_>
    <_>
      <rects>
        <_>
          10 15 4 8 -1.</_>
        <_>
          10 19 4 4 2.</_></rects>
      <tilted>0</tilted></_>
    <_>
      <rects>
        <_>
          10 18 5 4 -1.</_>
        <_>
          10 20 5 2 2.</_></rects>
      <tilted>0</tilted></_>
    <_>
      <rects>
        <_>
          11 8 12 4 -1.</_>
        <_>
          15 8 4 4 3.</_></rects>
      <tilted>0</tilted></_>
    <_>
      <rects>
        <_>
          11 9 8 1 -1.</_>
        <_>
          15 9 4 1 2.</_></rects>
      <tilted>0</tilted></_>
    <_>
      <rects>
        <_>
          11 10 6 3 -1.</_>
        <_>
          13 10 2 3 3.</_></rects>
      <tilted>0</tilted></_>
    <_>
      <rects>
        <_>
          12 1 12 4 -1.</_>
        <_>
          12 1 6 2 2.</_>
        <_>
          18 3 6 2 2.</_></rects>
      <tilted>0</tilted></_>
    <_>
      <rects>
        <_>
          12 13 5 10 -1.</_>
        <_>
          12 18 5 5 2.</_></rects>
      <tilted>0</tilted></_>
    <_>
      <rects>
        <_>
          12 16 10 6 -1.</_>
        <_>
          12 16 5 3 2.</_>
        <_>
          17 19 5 3 2.</_></rects>
      <tilted>0</tilted></_>
    <_>
      <rects>
        <_>
          13 8 2 1 -1.</_>
        <_>
          14 8 1 1 2.</_></rects>
      <tilted>0</tilted></_>
    <_>
      <rects>
        <_>
          13 8 2 2 -1.</_>
        <_>
          14 8 1 2 2.</_></rects>
      <tilted>0</tilted></_>
    <_>
      <rects>
        <_>
          14 1 10 4 -1.</_>
        <_>
          14 1 5 2 2.</_>
        <_>
          19 3 5 2 2.</_></rects>
      <tilted>0</tilted></_>
    <_>
      <rects>
        <_>
          14 10 9 4 -1.</_>
        <_>
          17 10 3 4 3.</_></rects>
      <tilted>0</tilted></_>
    <_>
      <rects>
        <_>
          15 7 8 9 -1.</_>
        <_>
          19 7 4 9 2.</_></rects>
      <tilted>0</tilted></_>
    <_>
      <rects>
        <_>
          15 13 1 10 -1.</_>
        <_>
          15 18 1 5 2.</_></rects>
      <tilted>0</tilted></_>
    <_>
      <rects>
        <_>
          17 0 6 16 -1.</_>
        <_>
          17 0 3 8 2.</_>
        <_>
          20 8 3 8 2.</_></rects>
      <tilted>0</tilted></_>
    <_>
      <rects>
        <_>
          17 9 6 5 -1.</_>
        <_>
          20 9 3 5 2.</_></rects>
      <tilted>0</tilted></_>
    <_>
      <rects>
        <_>
          18 9 6 4 -1.</_>
        <_>
          20 9 2 4 3.</_></rects>
      <tilted>0</tilted></_>
    <_>
      <rects>
        <_>
          18 10 3 4 -1.</_>
        <_>
          19 10 1 4 3.</_></rects>
      <tilted>0</tilted></_>
    <_>
      <rects>
        <_>
          19 7 1 12 -1.</_>
        <_>
          19 11 1 4 3.</_></rects>
      <tilted>0</tilted></_>
    <_>
      <rects>
        <_>
          20 11 2 4 -1.</_>
        <_>
          21 11 1 4 2.</_></rects>
      <tilted>0</tilted></_>
    <_>
      <rects>
        <_>
          20 12 2 3 -1.</_>
        <_>
          21 12 1 3 2.</_></rects>
      <tilted>0</tilted></_>
    <_>
      <rects>
        <_>
          22 11 2 8 -1.</_>
        <_>
          23 11 1 8 2.</_></rects>
      <tilted>0</tilted></_></features></cascade>
</opencv_storage>
